digraph Tree {
node [shape=box, style="filled, rounded", color="black", fontname=helvetica] ;
edge [fontname=helvetica] ;
0 [label="sqft_living <= 2005.0\ngini = 0.5\nsamples = 300\nvalue = [152, 148]\nclass = False", fillcolor="#fefcfa"] ;
1 [label="bathrooms <= 1.875\ngini = 0.303\nsamples = 86\nvalue = [16, 70]\nclass = True", fillcolor="#66b3eb"] ;
0 -> 1 [labeldistance=2.5, labelangle=45, headlabel="True"] ;
2 [label="sqft_living <= 1395.0\ngini = 0.48\nsamples = 35\nvalue = [14, 21]\nclass = True", fillcolor="#bddef6"] ;
1 -> 2 ;
3 [label="sqft_lot <= 5766.0\ngini = 0.105\nsamples = 18\nvalue = [1, 17]\nclass = True", fillcolor="#45a3e7"] ;
2 -> 3 ;
4 [label="sqft_lot <= 5155.0\ngini = 0.5\nsamples = 2\nvalue = [1, 1]\nclass = False", fillcolor="#ffffff"] ;
3 -> 4 ;
5 [label="gini = 0.0\nsamples = 1\nvalue = [0, 1]\nclass = True", fillcolor="#399de5"] ;
4 -> 5 ;
6 [label="gini = 0.0\nsamples = 1\nvalue = [1, 0]\nclass = False", fillcolor="#e58139"] ;
4 -> 6 ;
7 [label="gini = 0.0\nsamples = 16\nvalue = [0, 16]\nclass = True", fillcolor="#399de5"] ;
3 -> 7 ;
8 [label="price <= 353000.0\ngini = 0.36\nsamples = 17\nvalue = [13, 4]\nclass = False", fillcolor="#eda876"] ;
2 -> 8 ;
9 [label="price <= 327500.0\ngini = 0.133\nsamples = 14\nvalue = [13, 1]\nclass = False", fillcolor="#e78b48"] ;
8 -> 9 ;
10 [label="gini = 0.0\nsamples = 11\nvalue = [11, 0]\nclass = False", fillcolor="#e58139"] ;
9 -> 10 ;
11 [label="gini = 0.444\nsamples = 3\nvalue = [2, 1]\nclass = False", fillcolor="#f2c09c"] ;
9 -> 11 ;
12 [label="gini = 0.0\nsamples = 3\nvalue = [0, 3]\nclass = True", fillcolor="#399de5"] ;
8 -> 12 ;
13 [label="bedrooms <= 3.5\ngini = 0.075\nsamples = 51\nvalue = [2, 49]\nclass = True", fillcolor="#41a1e6"] ;
1 -> 13 ;
14 [label="bathrooms <= 2.625\ngini = 0.04\nsamples = 49\nvalue = [1, 48]\nclass = True", fillcolor="#3d9fe6"] ;
13 -> 14 ;
15 [label="gini = 0.0\nsamples = 43\nvalue = [0, 43]\nclass = True", fillcolor="#399de5"] ;
14 -> 15 ;
16 [label="price <= 379602.5\ngini = 0.278\nsamples = 6\nvalue = [1, 5]\nclass = True", fillcolor="#61b1ea"] ;
14 -> 16 ;
17 [label="gini = 0.0\nsamples = 1\nvalue = [1, 0]\nclass = False", fillcolor="#e58139"] ;
16 -> 17 ;
18 [label="gini = 0.0\nsamples = 5\nvalue = [0, 5]\nclass = True", fillcolor="#399de5"] ;
16 -> 18 ;
19 [label="sqft_living <= 1920.0\ngini = 0.5\nsamples = 2\nvalue = [1, 1]\nclass = False", fillcolor="#ffffff"] ;
13 -> 19 ;
20 [label="gini = 0.0\nsamples = 1\nvalue = [1, 0]\nclass = False", fillcolor="#e58139"] ;
19 -> 20 ;
21 [label="gini = 0.0\nsamples = 1\nvalue = [0, 1]\nclass = True", fillcolor="#399de5"] ;
19 -> 21 ;
22 [label="grade <= 7.5\ngini = 0.463\nsamples = 214\nvalue = [136, 78]\nclass = False", fillcolor="#f4c9ab"] ;
0 -> 22 [labeldistance=2.5, labelangle=-45, headlabel="False"] ;
23 [label="sqft_living <= 2330.0\ngini = 0.245\nsamples = 70\nvalue = [60, 10]\nclass = False", fillcolor="#e9965a"] ;
22 -> 23 ;
24 [label="price <= 464950.0\ngini = 0.466\nsamples = 27\nvalue = [17, 10]\nclass = False", fillcolor="#f4cbad"] ;
23 -> 24 ;
25 [label="sqft_lot <= 4354.5\ngini = 0.266\nsamples = 19\nvalue = [16, 3]\nclass = False", fillcolor="#ea995e"] ;
24 -> 25 ;
26 [label="gini = 0.444\nsamples = 3\nvalue = [1, 2]\nclass = True", fillcolor="#9ccef2"] ;
25 -> 26 ;
27 [label="gini = 0.117\nsamples = 16\nvalue = [15, 1]\nclass = False", fillcolor="#e78946"] ;
25 -> 27 ;
28 [label="sqft_living <= 2295.0\ngini = 0.219\nsamples = 8\nvalue = [1, 7]\nclass = True", fillcolor="#55abe9"] ;
24 -> 28 ;
29 [label="gini = 0.0\nsamples = 6\nvalue = [0, 6]\nclass = True", fillcolor="#399de5"] ;
28 -> 29 ;
30 [label="gini = 0.5\nsamples = 2\nvalue = [1, 1]\nclass = False", fillcolor="#ffffff"] ;
28 -> 30 ;
31 [label="gini = 0.0\nsamples = 43\nvalue = [43, 0]\nclass = False", fillcolor="#e58139"] ;
23 -> 31 ;
32 [label="sqft_living <= 3025.0\ngini = 0.498\nsamples = 144\nvalue = [76, 68]\nclass = False", fillcolor="#fcf2ea"] ;
22 -> 32 ;
33 [label="price <= 595250.0\ngini = 0.4\nsamples = 65\nvalue = [18, 47]\nclass = True", fillcolor="#85c3ef"] ;
32 -> 33 ;
34 [label="sqft_living <= 2650.0\ngini = 0.469\nsamples = 48\nvalue = [18, 30]\nclass = True", fillcolor="#b0d8f5"] ;
33 -> 34 ;
35 [label="gini = 0.257\nsamples = 33\nvalue = [5, 28]\nclass = True", fillcolor="#5caeea"] ;
34 -> 35 ;
36 [label="gini = 0.231\nsamples = 15\nvalue = [13, 2]\nclass = False", fillcolor="#e99457"] ;
34 -> 36 ;
37 [label="gini = 0.0\nsamples = 17\nvalue = [0, 17]\nclass = True", fillcolor="#399de5"] ;
33 -> 37 ;
38 [label="price <= 697094.0\ngini = 0.39\nsamples = 79\nvalue = [58, 21]\nclass = False", fillcolor="#eeaf81"] ;
32 -> 38 ;
39 [label="price <= 649000.0\ngini = 0.13\nsamples = 43\nvalue = [40, 3]\nclass = False", fillcolor="#e78a48"] ;
38 -> 39 ;
40 [label="gini = 0.0\nsamples = 26\nvalue = [26, 0]\nclass = False", fillcolor="#e58139"] ;
39 -> 40 ;
41 [label="gini = 0.291\nsamples = 17\nvalue = [14, 3]\nclass = False", fillcolor="#eb9c63"] ;
39 -> 41 ;
42 [label="sqft_living <= 3675.0\ngini = 0.5\nsamples = 36\nvalue = [18, 18]\nclass = False", fillcolor="#ffffff"] ;
38 -> 42 ;
43 [label="gini = 0.153\nsamples = 12\nvalue = [1, 11]\nclass = True", fillcolor="#4ba6e7"] ;
42 -> 43 ;
44 [label="gini = 0.413\nsamples = 24\nvalue = [17, 7]\nclass = False", fillcolor="#f0b58b"] ;
42 -> 44 ;
}